digraph Tree {
node [shape=box] ;
0 [label="Neutered_ <= 0.5\ngini = 0.678\nsamples = 21383\nvalue = [3836, 1233, 8610, 7538, 166]"] ;
1 [label="Mix_ <= 0.5\ngini = 0.6026\nsamples = 14841\nvalue = [3198, 455, 8303, 2854, 31]"] ;
0 -> 1 [labeldistance=2.5, labelangle=45, headlabel="True"] ;
2 [label="Sex_ <= 0.5\ngini = 0.5968\nsamples = 14032\nvalue = [2922, 432, 7967, 2682, 29]"] ;
1 -> 2 ;
3 [label="gini = 0.6156\nsamples = 7376\nvalue = [1654, 262, 4004, 1442, 14]"] ;
2 -> 3 ;
4 [label="gini = 0.5738\nsamples = 6656\nvalue = [1268, 170, 3963, 1240, 15]"] ;
2 -> 4 ;
5 [label="Sex_ <= 0.5\ngini = 0.6651\nsamples = 809\nvalue = [276, 23, 336, 172, 2]"] ;
1 -> 5 ;
6 [label="gini = 0.677\nsamples = 449\nvalue = [166, 14, 161, 107, 1]"] ;
5 -> 6 ;
7 [label="gini = 0.6371\nsamples = 360\nvalue = [110, 9, 175, 65, 1]"] ;
5 -> 7 ;
8 [label="Neutered_ <= 1.5\ngini = 0.4611\nsamples = 6542\nvalue = [638, 778, 307, 4684, 135]"] ;
0 -> 8 [labeldistance=2.5, labelangle=-45, headlabel="False"] ;
9 [label="Mix_ <= 0.5\ngini = 0.4901\nsamples = 5671\nvalue = [627, 697, 307, 3926, 114]"] ;
8 -> 9 ;
10 [label="Sex_ <= 0.5\ngini = 0.4833\nsamples = 5402\nvalue = [555, 671, 294, 3771, 111]"] ;
9 -> 10 ;
11 [label="gini = 0.5151\nsamples = 2671\nvalue = [336, 362, 121, 1788, 64]"] ;
10 -> 11 ;
12 [label="gini = 0.4492\nsamples = 2731\nvalue = [219, 309, 173, 1983, 47]"] ;
10 -> 12 ;
13 [label="Sex_ <= 0.5\ngini = 0.5845\nsamples = 269\nvalue = [72, 26, 13, 155, 3]"] ;
9 -> 13 ;
14 [label="gini = 0.6106\nsamples = 173\nvalue = [55, 17, 7, 91, 3]"] ;
13 -> 14 ;
15 [label="gini = 0.5115\nsamples = 96\nvalue = [17, 9, 6, 64, 0]"] ;
13 -> 15 ;
16 [label="Mix_ <= 0.5\ngini = 0.2333\nsamples = 871\nvalue = [11, 81, 0, 758, 21]"] ;
8 -> 16 ;
17 [label="gini = 0.2214\nsamples = 856\nvalue = [8, 78, 0, 751, 19]"] ;
16 -> 17 ;
18 [label="gini = 0.6844\nsamples = 15\nvalue = [3, 3, 0, 7, 2]"] ;
16 -> 18 ;
}